tree
version=v4
num_class=1
num_tree_per_iteration=1
label_index=0
max_feature_idx=3
objective=regression
feature_names=x0 x1 x2 x3
feature_infos=[0:9.9000000000000004] [0:9.8000000000000007] [0:9.9000000000000004] -1:9:0:2:4:5:6:7:3:8:1
tree_sizes=931 1058 976 1135 1140

Tree=0
num_leaves=10
num_cat=0
split_feature=2 1 1 0 0 2 0 1 0
split_gain=25.0622 13.4213 7.81363 4.17122 1.4867 1.85204 0.787037 0.163668 0.0359155
threshold=4.0500000000000007 7.7500000000000009 4.5500000000000007 5.8000000000000016 6.7500000000000009 6.3500000000000005 3.4500000000000006 5.8500000000000005 1.8500000000000003
decision_type=2 2 2 2 2 2 2 2 2
left_child=2 4 3 -1 7 -6 -4 8 -2
right_child=1 -3 6 -5 5 -7 -8 -9 -10
leaf_value=0.91066666613953806 0.9889999999835466 1.0683589738903518 0.96899999985316143 0.96323076904631955 0.99400000001614286 1.0332857140457434 0.99400000001614286 1.0019999999639888 0.99400000001614286
leaf_weight=36 20 39 20 26 21 28 34 25 51
leaf_count=36 20 39 20 26 21 28 34 25 51
internal_value=0.993333 1.01628 0.956931 0.93271 1.00228 1.01645 0.984741 0.995042 0.992592
internal_weight=0 184 116 62 145 49 54 96 71
internal_count=300 184 116 62 145 49 54 96 71
is_linear=0
shrinkage=1


Tree=1
num_leaves=11
num_cat=0
split_feature=2 1 1 0 1 2 2 2 2 0
split_gain=20.3004 10.8713 6.36761 3.77682 1.34014 1.44878 0.441848 0.19812 0.026579 0.00350037
threshold=4.0500000000000007 7.7500000000000009 5.0500000000000007 3.8500000000000001 5.7500000000000009 6.4500000000000011 2.2500000000000004 7.8500000000000005 5.1500000000000012 5.6500000000000012
decision_type=2 2 2 2 2 2 2 2 2 2
left_child=2 4 3 -1 7 -6 -4 8 -2 -10
right_child=1 -3 6 -5 5 -7 -8 -9 9 -11
leaf_value=-0.076532351072220242 -0.0043000001087784767 0.067523078200144651 -0.017899999655783178 -0.028270968151909694 0.004530612144264437 0.041676189969959004 0.0011645161216297458 0.0080224487770880967 0.00076071428733744801 -0.00097142858430743217
leaf_weight=34 20 39 20 31 21 21 31 35 28 20
leaf_count=34 20 39 20 31 21 21 31 35 28 20
internal_value=0 0.0206543 -0.0327621 -0.0535154 0.00804828 0.0231034 -0.00631176 0.00190929 -0.00123718 3.89881e-05
internal_weight=0 184 116 65 145 42 51 103 68 48
internal_count=300 184 116 65 145 42 51 103 68 48
is_linear=0
shrinkage=0.1


Tree=2
num_leaves=10
num_cat=0
split_feature=2 1 1 0 0 2 0 2 0
split_gain=16.4433 8.80574 5.30718 2.95305 1.25426 0.898936 0.167336 0.129581 0.0195663
threshold=4.0500000000000007 7.7500000000000009 4.2500000000000009 5.8000000000000016 7.5500000000000007 2.2500000000000004 3.6500000000000008 6.4500000000000011 1.6500000000000001
decision_type=2 2 2 2 2 2 2 2 2
left_child=2 4 3 -1 6 -4 8 -8 -2
right_child=1 -3 5 -5 -6 -7 7 -9 -10
leaf_value=-0.071365883899852642 -0.0042178705557370964 0.060770767163007694 -0.022856777518987657 -0.025495980858802798 0.024048169260598065 0.0021225635071887689 8.1711309515715891e-05 0.0096219042442472931 -0.00031222260219912078
leaf_weight=32 23 39 25 25 34 34 24 35 29
leaf_count=32 23 39 25 25 34 34 24 35 29
internal_value=0 0.0185889 -0.0294859 -0.0512475 0.00724345 -0.0084619 0.00209606 0.00574115 -0.00203972
internal_weight=0 184 116 57 145 59 111 59 52
internal_count=300 184 116 57 145 59 111 59 52
is_linear=0
shrinkage=0.1


Tree=3
num_leaves=12
num_cat=0
split_feature=2 1 1 2 0 0 2 0 0 1 2
split_gain=13.7383 7.13163 5.44524 3.64733 1.38156 1.17214 1.44484 0.919678 0.290498 0.163577 0.0302091
threshold=3.2500000000000004 7.7500000000000009 4.1500000000000012 8.1500000000000004 4.7500000000000009 6.7500000000000009 6.3500000000000005 3.4500000000000006 1.3500000000000003 2.2500000000000004 6.6500000000000012
decision_type=2 2 2 2 2 2 2 2 2 2 2
left_child=2 5 4 -3 -1 8 -7 -4 -2 -10 -11
right_child=1 3 7 -5 -6 6 -8 -9 9 10 -12
leaf_value=-0.076276844739913946 -0.012102717987727375 0.021397085603149166 -0.025375127499657021 0.080334717035293587 -0.039962041974067691 0.00080731424848260044 0.032654349133372305 0.0025276197327507872 -0.0053196552006907214 0.0058777159222194722 0.0014981740362210467
leaf_weight=22 20 21 21 21 20 29 28 27 27 36 28
leaf_count=22 20 21 21 21 20 29 28 27 27 36 28
internal_value=0 0.0140093 -0.0326885 0.0508659 -0.0589841 0.00479521 0.0164515 -0.00967983 -0.00119044 0.00120787 0.00396167
internal_weight=0 210 90 42 42 168 57 48 111 91 64
internal_count=300 210 90 42 42 168 57 48 111 91 64
is_linear=0
shrinkage=0.1


Tree=4
num_leaves=12
num_cat=0
split_feature=2 1 2 1 0 2 2 1 2 1 1
split_gain=11.333 5.29767 6.36153 3.12567 1.22002 1.22358 0.627947 0.0676673 0.0633798 0.0257134 0.00312228
threshold=2.5500000000000003 7.3500000000000005 6.6500000000000012 4.1500000000000012 3.6500000000000008 5.0500000000000007 8.1500000000000004 6.0500000000000007 4.3500000000000005 2.6500000000000008 2.8500000000000001
decision_type=2 2 2 2 2 2 2 2 2 2 2
left_child=3 4 -3 -1 5 -2 7 8 -6 -10 -7
right_child=1 2 -4 -5 6 10 -8 -9 9 -11 -12
leaf_value=-0.060740401331455474 -0.027608891367795881 0.003729247557847495 0.064928260411728514 -0.015461565321020316 0.0063351626133745804 0.0012375214530038648 0.02313491709297523 0.0084959104764857334 -0.0026474222024578768 0.0022552707933937203 -0.0004888500216607513
leaf_weight=31 25 35 33 30 21 20 20 20 23 20 22
leaf_count=31 25 35 33 30 21 20 20 20 23 20 22
internal_value=0 0.00981924 0.0334288 -0.0384721 0.000430661 -0.0100929 0.00721029 0.00341871 0.00183208 -0.0003671 0.000333232
internal_weight=0 239 68 61 171 67 104 84 64 43 42
internal_count=300 239 68 61 171 67 104 84 64 43 42
is_linear=0
shrinkage=0.1


end of trees

feature_importances:
x2=19
x1=16
x0=15

parameters:
[boosting: gbdt]
[objective: regression]
[metric: l2]
[tree_learner: serial]
[device_type: cpu]
[data_sample_strategy: bagging]
[data: ]
[valid: ]
[num_iterations: 5]
[learning_rate: 0.1]
[num_leaves: 31]
[num_threads: 0]
[seed: 0]
[deterministic: 0]
[force_col_wise: 0]
[force_row_wise: 0]
[histogram_pool_size: -1]
[max_depth: -1]
[min_data_in_leaf: 20]
[min_sum_hessian_in_leaf: 0.001]
[bagging_fraction: 1]
[pos_bagging_fraction: 1]
[neg_bagging_fraction: 1]
[bagging_freq: 0]
[bagging_seed: 3]
[feature_fraction: 1]
[feature_fraction_bynode: 1]
[feature_fraction_seed: 2]
[extra_trees: 0]
[extra_seed: 6]
[early_stopping_round: 0]
[early_stopping_min_delta: 0]
[first_metric_only: 0]
[max_delta_step: 0]
[lambda_l1: 0]
[lambda_l2: 0]
[linear_lambda: 0]
[min_gain_to_split: 0]
[drop_rate: 0.1]
[max_drop: 50]
[skip_drop: 0.5]
[xgboost_dart_mode: 0]
[uniform_drop: 0]
[drop_seed: 4]
[top_rate: 0.2]
[other_rate: 0.1]
[min_data_per_group: 100]
[max_cat_threshold: 32]
[cat_l2: 10]
[cat_smooth: 10]
[max_cat_to_onehot: 4]
[top_k: 20]
[monotone_constraints: ]
[monotone_constraints_method: basic]
[monotone_penalty: 0]
[feature_contri: ]
[forcedsplits_filename: ]
[refit_decay_rate: 0.9]
[cegb_tradeoff: 1]
[cegb_penalty_split: 0]
[cegb_penalty_feature_lazy: ]
[cegb_penalty_feature_coupled: ]
[path_smooth: 0]
[interaction_constraints: ]
[verbosity: 1]
[saved_feature_importance_type: 0]
[use_quantized_grad: 0]
[num_grad_quant_bins: 4]
[quant_train_renew_leaf: 0]
[stochastic_rounding: 1]
[linear_tree: 0]
[max_bin: 255]
[max_bin_by_feature: ]
[min_data_in_bin: 3]
[bin_construct_sample_cnt: 200000]
[data_random_seed: 1]
[is_enable_sparse: 1]
[enable_bundle: 1]
[use_missing: 1]
[zero_as_missing: 0]
[feature_pre_filter: 1]
[pre_partition: 0]
[two_round: 0]
[header: 0]
[label_column: ]
[weight_column: ]
[group_column: ]
[ignore_column: ]
[categorical_feature: 3]
[forcedbins_filename: ]
[precise_float_parser: 0]
[parser_config_file: ]
[objective_seed: 5]
[num_class: 1]
[is_unbalance: 0]
[scale_pos_weight: 1]
[sigmoid: 1]
[boost_from_average: 1]
[reg_sqrt: 0]
[alpha: 0.9]
[fair_c: 1]
[poisson_max_delta_step: 0.7]
[tweedie_variance_power: 1.5]
[lambdarank_truncation_level: 30]
[lambdarank_norm: 1]
[label_gain: ]
[lambdarank_position_bias_regularization: 0]
[eval_at: ]
[multi_error_top_k: 1]
[auc_mu_weights: ]
[num_machines: 1]
[local_listen_port: 12400]
[time_out: 120]
[machine_list_filename: ]
[machines: ]
[gpu_platform_id: -1]
[gpu_device_id: -1]
[gpu_use_dp: 0]
[num_gpu: 1]

end of parameters

pandas_categorical:[["cat0", "cat1", "cat2", "cat3", "cat4", "cat5", "cat6", "cat7", "cat8", "cat9"]]
